SVM-light Version V6.20
0 # kernel type
3 # kernel parameter -d 
1 # kernel parameter -g 
1 # kernel parameter -s 
1 # kernel parameter -r 
empty# kernel parameter -u 
257 # highest feature index 
67 # number of training documents 
2 # number of support vectors plus 1 
0 # threshold b, each following line is a SV (starting with alpha*y)
1 1:9.3027191 2:1.9702392 3:-8.0030279 4:-6.9036188 5:2.7933631 6:2.0512202 7:8.0030279 8:8.4771042 9:8.8816328 10:9.0482473 11:-0.59744108 12:-3.6733506 13:-1.2478664 14:0.4958474 15:1.8563212 16:7.8864698 17:8.0331221 18:-6.9628491 19:0.838202 20:-0.85007554 21:0.051046688 22:-1.9702392 23:4.2524595 24:6.3334804 25:0.61717319 26:-3.8444602 27:6.4437065 28:-4.5724106 29:-7.8864698 30:-5.5663199 31:-1.0054027 32:3.0609827 33:1.4765351 34:-6.035872 35:-1.8060255 36:2.7821944 37:-2.7933631 38:2.1307633 39:-1.4765351 40:5.9535928 41:-2.5120971 42:-0.25948229 43:1.5691012 44:-3.0609827 45:-6.4962778 46:-4.9645157 47:0.85007554 48:1.0054531 49:3.1049962 50:-8.6365643 51:-0.051046688 52:-0.80533433 53:-9.4525299 54:5.8841748 55:4.1322689 56:8.6365643 57:1.2314359 58:5.6706243 59:6.2891278 60:-5.0177746 61:-6.3382478 62:-3.1049962 63:1.2729217 64:-4.862505 65:-2.1307633 66:-3.9337964 67:3.9337964 68:-0.838202 69:2.3386564 70:5.4759817 71:6.4962778 72:4.5488296 73:7.3382401 74:3.9332914 75:5.7545977 76:2.5120971 77:7.2942576 78:5.3680983 79:-1.7156558 80:5.2711692 81:-7.3382401 82:-8.2399998 83:-5.7864146 84:-8.0331221 85:-2.2083168 86:3.5096643 87:2.9149134 88:-5.4759817 89:-2.9921691 90:-6.3334804 91:-4.8571954 92:-0.43707329 93:0.80533433 94:4.054987 95:2.1143799 96:6.9628491 97:1.4268597 98:-1.8563212 99:1.1332252 100:0.43707329 101:7.1020184 102:3.7640355 103:3.4163206 104:-1.5691012 105:4.3706188 106:-4.1322689 107:-2.9882951 108:-1.7577075 109:-6.2891278 110:-2.7821944 111:-5.0079069 112:0.59744108 113:2.2083168 114:1.62026 115:0.11081999 116:3.5711434 117:3.1840203 118:-8.3169212 119:3.6733506 120:-1.62026 121:7.4080029 122:-2.5749228 123:-5.2711692 124:0.99064863 125:-3.9332914 126:-5.8841748 127:-7.0170093 128:-5.3680983 129:-0.026350738 130:-2.0512202 131:4.3117757 132:-3.8261707 133:4.8571954 134:-0.27095065 135:3.8261707 136:1.9282351 137:6.3382478 138:-7.2942576 139:-4.5488296 140:-4.1007352 141:-1.0298889 142:-6.4437065 143:-2.9149134 144:-5.6706243 145:-1.4268597 146:-1.2729217 147:2.5475845 148:-1.5842592 149:1.7577075 150:2.42366 151:-0.26317528 152:4.9645157 153:2.9882951 154:-6.1115613 155:-3.219564 156:-5.7545977 157:-2.42366 158:-2.5475845 159:-5.2524037 160:-2.9131696 161:5.4975781 162:3.5924454 163:0.11115653 164:0.026350738 165:3.4402936 166:7.51474 167:0.7253592 168:1.0054027 169:-0.61717319 170:-2.664187 171:-0.11115653 172:-4.788506 173:-6.7093921 174:-3.2215271 175:-7.6740923 176:1.3356987 177:2.664187 178:-4.7774053 179:1.8060255 180:-2.1143799 181:1.9975039 182:6.1115613 183:4.788506 184:7.6740923 185:4.5141006 186:-0.7253592 187:-8.4771042 188:-4.3117757 189:-0.55184597 190:-3.4163206 191:-8.8816328 192:0.27095065 193:-6.939147 194:-7.51474 195:-7.1020184 196:-3.1840203 197:-0.11081999 198:3.2215271 199:5.5663199 200:1.0298889 201:1.9585524 202:-1.1332252 203:-4.976006 204:1.5842592 205:4.976006 206:-7.4080029 207:-9.3027191 208:-4.3706188 209:-3.5924454 210:-5.4975781 211:-1.0054531 212:-1.3356987 213:4.862505 214:2.9921691 215:3.219564 216:5.7864146 217:3.8444602 218:0.25948229 219:2.5749228 220:4.1007352 221:-3.5711434 222:-9.8770208 223:-9.0482473 224:1.2478664 225:8.3169212 226:-5.9535928 227:-1.9975039 228:-0.99064863 229:-4.5141006 230:5.0177746 231:5.2524037 232:-1.2314359 233:5.0079069 234:-2.3386564 235:-4.2524595 236:2.9131696 237:-4.054987 238:-1.9282351 239:-3.4402936 240:6.939147 241:9.8770208 242:6.7093921 243:-1.9585524 244:-3.7640355 245:-0.4958474 246:1.7156558 247:4.7774053 248:6.9036188 249:8.2399998 250:6.035872 251:0.55184597 252:-3.5096643 253:0.26317528 254:4.5724106 255:7.0170093 256:9.4525299 #
